-6.31657 -6.90788 
-5.87421 -6.23053 


-6.56374 -6.84532 
-6.11124 -6.29068 


-6.28253 -6.63538 
-5.54489 -6.0331 


-6.42539 -6.90981 
-5.90366 -6.36092 


-6.31358 -6.69783 
-5.64267 -6.26445 


-6.55337 -6.88883 
-6.25209 -6.38732 


-6.46994 -6.61956 
-5.9664 -6.33052 


-6.48178 -6.99317 
-6.03067 -6.25481 


-6.37926 -6.6698 
-5.87942 -6.25806 


-6.4483 -6.81978 
-5.8989 -6.23083 


-6.62856 -6.77241 
-5.98865 -6.35478 


-6.42141 -6.85792 
-5.942 -6.17184 


-6.33482 -6.62853 
-6.01869 -6.31031 


-6.51287 -6.73729 
-6.01906 -6.4015 


-6.48971 -6.5984 
-5.9747 -6.27063 


-6.64227 -6.86439 
-6.15604 -6.38203 


-6.36184 -6.83427 
-5.7857 -6.03971 


-6.42574 -6.62063 
-5.94674 -6.41832 


-6.58984 -6.91878 
-6.16513 -6.40828 


-6.46025 -6.79941 
-5.66336 -6.0811 




--------------------
-0.577138 -0.564533 
-0.533968 -0.546821 


0.236702 0.25097 
0.215668 0.242544 


-0.204095 -0.220557 
-0.195038 -0.199529 


-0.468251 -0.434948 
-0.463145 -0.450029 


0.0185118 0.040607 
0.00452944 0.0290401 


0.068105 0.101132 
0.0691241 0.0928308 


-0.0179983 -0.055474 
-0.01908 -0.0630618 


-0.189115 -0.125921 
-0.163421 -0.160965 


-0.747306 -0.789548 
-0.75721 -0.74459 


0.282393 0.286486 
0.271485 0.27617 


-0.383566 -0.38639 
-0.368346 -0.33202 


0.31617 0.295375 
0.298374 0.310535 


-0.244676 -0.255028 
-0.255876 -0.235837 


0.0908989 0.0926667 
0.129983 0.0957822 


-0.0333973 -0.00195109 
0.000210564 0.02811 


-0.949998 -0.936669 
-0.92724 -0.885781 


0.4577 0.477334 
0.448281 0.441547 


-0.060469 -0.0805327 
-0.065069 -0.101872 


-0.27001 -0.280755 
-0.245765 -0.260297 


-0.0221656 -0.0652602 
-0.0346947 -0.0477638 


-0.327173 -0.338147 
-0.315712 -0.277318 


-0.361671 -0.368519 
-0.33919 -0.362237 


-0.320237 -0.319992 
-0.330806 -0.279699 


-0.564236 -0.593053 
-0.566595 -0.581687 


-0.222523 -0.193989 
-0.176953 -0.187931 




--------------------
-0.101763
0.0913774
0.00455026
-0.0596858
0.0224379
0.0182306
-0.0627791
-0.0362962
0.0817964
-0.104281
0.0759393
0.0684339
-0.0628723
0.01777
0.0781114
0.0736812
-0.0265027
0.0587701
0.0240886
0.0587783
0.0750855
-0.0888685
0.0906214
-0.0703194
-0.0423325
-0.105001
-0.0865634
-0.100492
-0.0200357
-0.0507779
0.0535884
-0.0744814
-0.0766426
-0.0641518
0.0260256
0.083617
0.0592907
0.0522592
0.00424442
-0.0955236
0.0631299
-0.0717009
-0.0719916
0.0438688
0.0643225
-0.0984635
0.0819073
-0.0466634
0.0922136
-0.0222646
0.0793665
-0.0346905
-0.0649703
0.0684296
-0.0130472
0.095252
-0.0387356
0.0153838
0.0503398
0.0247844
-0.0561834
-0.0238573
0.0526369
-0.0452245
0.0444333
-0.0415971
0.0991069
0.0913185
0.0801419
-0.0727084
-0.0846366
-0.0621129
-0.0108612
0.00526946
0.0772553
0.0254444
-0.0436872
-0.00597623
0.0275239
0.0850147
-0.004197
0.0384465
0.077733
-0.0542596
0.0318008
0.0750565
0.0785756
-0.0568776
0.0741492
0.0373021
-0.0735149
-0.0210018
0.00833306
-0.0425685
0.0572475
-0.0967646
-0.0523512
-0.095325
-0.0868072
-0.0760871
-0.0400365
0.00422851
-0.0903298
-0.0468376
0.014455
0.0379114
0.043963
-0.0951006
-0.0242249
-0.0238463
-0.00699492
0.0807056
0.0130787
-0.0113047
-0.0408909
-0.0468773
0.0729163
0.0519019
0.0220677
0.0780229
-0.061468
-0.0975165
-0.034096
-0.00292133
0.0113613
0.0333194
-0.0601219
0.0213351
0.0929052
-0.0347367
0.0372065
0.0213906
-0.0719071
-0.0310315
-0.0967488
-0.0037617
-0.027208
-0.0200077
0.0581469
-0.0935363
0.0963404
-0.0258464
0.0354177
0.0192521
-0.0354176
0.0548822
0.0221802
-0.036683
0.03185
0.0123686
0.0346368
0.041824
-0.0740571
-0.079647
-0.0169375
0.0161221
-0.0034812
0.0700083
0.0247976
-0.0471129
0.0965135
-0.00404136
-0.024031
0.0313601
-0.0464682
0.0873066
-0.0119212
0.015933
0.0615531
0.0809719
0.0709367
0.0987617
0.0911456
-0.0901398
-0.0780464
0.080518
0.0438319
0.0523281
-0.0103795
0.0544478
0.0146015
-0.0151783
0.0571565
-0.0542555
0.0571475
0.0498781
-0.0152463
0.0667213
0.0221227
-0.0580816
-0.033045
-0.0612492
-0.0494475
0.00019755
0.0669904
-0.0916134
-0.0636855
0.0780416
-0.0773913
-0.051688
0.0579983
0.0745804
0.0658661
0.025702
-0.0859774
-0.0843325
-0.0818849
-0.0699644
0.0309206
0.015756
0.0833093
0.086297
0.0552408
-0.0791898
-0.0605827
-0.00734113
0.0703111
0.0757977
0.0475736
0.0104599
0.0742838
-0.085117
-0.0517339
0.0159833
-0.00332722
0.0967228
0.0541829
-0.0128908
-0.0211999
0.0104578
0.0375138
0.00774392
0.0201479
-0.0148609
-0.0826845
-0.083989
-0.00761682
-0.0732959
0.0899401
-0.0425562
0.0942559
0.056735
0.0273901
-0.0809399
-0.0526554
0.051954
-0.00657439
0.0144529
0.0391362
-0.0115611
0.0575938
-0.0610042
0.0163013
0.0628365
-0.075575
0.0725278
-0.0475166
-0.0810408
-0.0206508
-0.070916
0.0242873
0.0731114
0.0221748
-0.0270136
-0.00246914
-0.0884294
-0.0341328
-0.0962051
0.0514239
0.0273644
0.0406497
0.022938
0.0130288
0.0672749
-0.00353698
0.0328083
-0.0634146
0.0521581
0.0462036
0.0605318
0.0573006
0.0278679
-0.0975069
0.0554403
-0.0819653
0.0714134
-0.0408615
0.0924795
-0.00528041
-0.00767306
-0.037923
-0.070706
-0.0625728
0.016165
-0.0807807
-0.014235
-0.0194644
-0.09245
-0.0454465
0.0143152
-0.0670642
-0.0582958
0.0100386
-0.0909264
-0.0916989
-0.0671413
0.00626523
0.0888196
0.0508325
-0.0503796
0.0418171
-0.082015
-0.0557778
-0.106942
-0.109919
-0.0416801
0.0834956
0.0246219
-0.0590624
0.0519908
0.060914
0.0674578
0.0230618
0.0733385
0.0139556
-0.0330834
-0.0332748
-0.0110331
-0.098122
0.0768815
0.0910543
-0.0276291
0.0860645
0.0607525
-0.0411488
-0.0204603
0.102339
0.041537
0.0304261
0.0600163
0.0169756
-0.00941829
-0.0809109
0.0194111
0.0790262
-0.0808756
0.00906366
0.031307
0.0862665
0.0208632
-0.0518359
0.00135071
-0.0872681
0.0582609
0.103935
-0.0301136
0.00441121
0.0204582
0.00881246
-0.00876349
0.0504388
0.105806
-0.0506936
-0.0552186
0.10169
-0.0807389
-0.0576465
0.096962
-0.0170657
-0.0768616
-0.0215362
0.0435431
-0.105155
-0.0500297
-0.101636
-0.019441
-0.0744659
0.0405767
0.0690066
-0.0424062
-0.0926778
-0.0347869
0.0654675
0.0198612
0.0591919
-0.0294215
-0.0528206
0.100409
-0.0112543
-0.077944
0.0644532
-0.0947294
0.0284995
-0.0958105
-0.00459316
0.0787994
-0.0473039
-0.0540225
0.0329331
0.0242554
0.0827796
-0.031788
0.0865008
0.0827121
-0.0710713
-0.0311731
-0.0593925
0.0523296
0.014257
0.0673039
0.0144893
-0.0483327
-0.0440761
0.0703475
-0.0170606
-0.0411244
0.0937461
-0.0757568
0.0805498
-0.0900578
-0.0265291
0.0573636
0.017543
0.0452909
-0.036756
0.0945815
-0.0887742
0.04816
-0.0877882
-0.0706753
-0.0104099
0.0727472
-0.0326168
0.0610057
-0.0986799
0.0883001
-0.0305795
-0.0451583
-0.0214958
0.0473776
0.027469
-0.081696
0.00389486
-0.045909
-0.0924513
-0.0540084
0.000124391
0.0453398
-0.013467
0.0683547
-0.0223241
-0.0644883
-0.062303
0.0285156
-0.0300252
0.00480291
-0.0337755
0.0489876
0.0897512
0.00141535
0.0868397
-0.0839937
-0.0242665
-0.0548389
-0.0899916
0.0958264
-0.0232649
-0.0692104
-0.0130142
0.0872813
-0.0611401
0.0815878
0.0944441
-0.0883464
-0.0619709
0.0891858
0.0408306
0.0401745
0.0818683
-0.0896872
-0.032221
-0.0832827
-0.0400424
-0.0573992
0.0908987
-0.0313845
-0.00677101
0.093894
-0.000940011
-0.0947777
0.0700717
-0.0363389
0.0995331
-0.0738897
0.0467222
0.0310908
-0.0201157
-0.0213026
0.0606152
0.0611492
0.0126156
-0.0251785
0.011752
0.0693343
0.0351868
0.0246083
-0.0541643
0.0828863
0.045438
-0.061519
0.049956
-0.0539693
-0.0527213
0.0123703
-0.0732404
-0.0348856
0.0314083
-0.0497837
0.0100453
-0.0464279
-0.011411
-0.0824359
-0.00676123
-0.0679038
-0.0891347
0.00589606
-0.000792282
0.0103898
0.0329201
-0.0511275
0.0783283
-0.0769972
-0.0945293
0.0493508
-0.0797744
-0.00893801
0.0321779
-0.0905478
0.0878787
-0.0987433
-0.0310869
-0.0875705
0.0552073
-0.0756347
-0.00102002
0.0127103
-0.10875
-0.0219893
-0.0758249
-0.00276191
-0.0726358
-0.0755313
-0.0661864
-0.0402656
0.0258649
-0.0907752
0.0768048
-0.090429
0.049284
0.0501634
-0.012256
0.0583443
0.0578958
0.0216037
0.0145052
0.0297111
0.059845
0.0843476
-0.026607
-0.0031165
-0.0608628
0.00254498
0.0138552
-0.0446286
-0.00748563
0.0184052
0.0723166
0.0826888
-0.055172
0.0397662
0.0804159
0.00290161
-0.00145949
0.0912252
0.0769761
0.0934226
0.0643842
-0.00776156
-0.118479
0.000633729
-0.0778533
-0.12182
-0.0565154
-0.0412319
-0.118484
0.0218919
-0.0981613
-0.0177069
0.0726366
-0.0517164
0.0230366
0.064757
-0.0613865
-0.0371978
0.0417661
0.0536471
0.0134349
0.0539918
-0.0562304
-0.0212175
-0.115284
0.0645314
-0.0222145
-0.0985178
0.0375481
0.0253662
-0.030267
-0.00803904
-0.0624075
-0.0452713
-0.0556164
0.0243506
-0.0750843
-0.0825563
0.0862568
0.0542429
-0.0601161
0.041123
-0.0304704
0.0899038
-0.0864938
0.0112232
-0.0724544
-0.0669203
-0.0362534
-0.0971354
-0.102717
0.0379355
-0.0593374
-0.0992041
0.0266337
0.032287
0.0659416
-0.0869412
-0.00187759
0.0839692
0.0849302
-0.0808506
0.0569173
-0.0476146
-0.0411931
0.0608657
0.073595
-0.00969311
0.0626254
-0.020627
-0.102897
-0.0378415
-0.00365987
0.0270275
0.0163365
0.0178186
-0.0161944
-0.0541148
0.0372733
-0.0225966
-0.0462027
-0.00425498
-0.0314622
-0.0107707
0.0926749
0.0085048
0.0230279
-0.0675486
-0.0744528
-0.0548056
-0.0825011
0.0902025
4.98229e-005
-0.0706082
0.0620989
0.0824439
-0.00759219
-0.0289558
0.0745422
-0.0817984
-0.099376
-0.0738703
-0.0104233
-0.00975478
-0.0573549
-0.0581485
-0.0754449
0.0453642
-0.0282585
-0.0434762
0.00609708
0.0938387
-0.0430277
0.050769
-0.018847
0.0738763
-0.0835121
-0.0382111
-0.0134935
0.0646013
-0.0105281
0.0572337
0.0267945
-0.0787751
0.0593975
0.066963
-0.0731444
0.0226837
0.0295441
0.013525
0.00624507
-0.022404
-0.0431406
-0.0601951
0.0323784
-0.0158746
-0.0528807
-0.0972331
-0.0105289
-0.0897459
0.00150153
-0.0698837
-0.0461876
0.0951948
-0.0434949
-0.0142658
0.0648416
-0.0436692
-0.0397863
-0.086931
-0.0125229
-0.0258633
0.0608017
0.0383472
0.0438174
-0.058714
-0.0841023
-0.00527904
-0.0653608
-0.0778141
0.067139
-0.0359534
-0.00887014
0.0214874
0.0781664
0.034534
0.0477791
-0.0375171
-0.00338521
-0.00404136
-0.0326406
0.0832933
-0.0970131
-0.0598693
-0.0681958
-0.060417
0.0085093
-0.0725167
0.0445213
-0.0122961
-0.0756968
-0.0568638
0.0170489
0.0128367
0.0729752
0.0509063
-0.0434539
-0.0313764
-0.0164731
-0.101884
0.00152382
-0.0951563
-0.0119393
-0.102507
0.0422419
0.0462328
0.0467267
-0.0361723
-0.0746998
-0.0942534
0.0636168
0.0690802
0.0803619
-0.0682289
-0.0763656
0.0788835
0.0482369
0.0569835
-0.0794923
0.0835773
-0.0657834
0.0524545
-0.035351
-0.0816795
0.0847048
-0.00898681
0.0208494
-0.0187745
0.0812476
0.0263011
-0.0730039
0.0650301
0.0985338
-0.0962133
0.0868696
-0.0993599
-0.066849
-0.0822027
0.0121732
0.096369
-0.0526185
0.0688098
-0.0469761
-0.0483917
-0.0654269
-0.0785026
-0.0795927
-0.0761629
0.0392034
-0.0577126
0.0919732
-0.0775595
0.0618393
-0.0102201
-0.0250689
-0.0566797
-0.0870403
-0.00969338
0.0198852
-0.0116344
-0.0966894
0.0274812
0.0176756
0.0445197
-0.0834338
0.0648462
-0.0878335
-0.0565041
0.0616558
0.0823017
-0.0821901
-0.0324534
0.0229724
-0.0820103
-0.0892525
-0.0156802
-0.0124116
0.0486743
0.0101575
0.00226346
-0.0849467
-0.0255816
0.0911264
0.101543
0.0713369
-0.02869
-0.0807858
-0.00674455
-0.0622222
-0.0438386
-0.0650334
0.0408466
0.0480489
-0.0769357
-0.0654165
0.0655838
0.100294
0.0927302
-0.0760911
-0.0843539
-0.0388325
0.0115872
-0.0703703
-0.041335
-0.0228774
0.0354221
0.0297592
-0.039169
0.0498619
0.00923153
0.0770252
0.00469164
0.0521018
0.0360405
-0.00829
0.0414927
-0.0143823
-0.0575596
0.031478
0.051056
-0.0180854
0.0634472
0.0972618
-0.0631849
0.0543767
0.0714615
-0.0821802
-0.0266517
-0.0387401
-0.0416337
-0.0351621
0.0737781
-0.0882824
-0.0593785
0.0576093
-0.0827701
0.0821628
0.0482068
-0.0767901
0.003682
0.0871362
0.0786363
0.0728989
0.0264253
0.0692122
0.0335605
-0.00903418
-0.0747253
-0.0460398
0.0502413
-0.0905155
-0.0908428
0.0778567
0.0711686
-0.0682727
0.0270312
0.0840365
-0.0158621
-0.0780068
-0.0821482
0.0476926
0.0557852
-0.0114416
-0.0246573
-0.0706418
-0.0146823
-0.0367639
-0.0655794
0.0535566
-0.0826402
0.0676064
-0.0447995
0.023978
-0.0453669
0.0523605
0.0231271
-0.0111658
-0.00621186
0.01274
-0.0995029
-0.0892703
-0.0447888
0.0585053
-0.0275711
0.0342014
-0.0142681
0.00921894
0.0871174
0.074086
-0.00972695
0.0909186
0.0420735
0.0710996
0.090756
-0.0746661
0.0601127
-0.0328576
-0.0999824
-0.0237009
0.0682908
0.0755381
-0.0718713
-0.0569554
0.052234
0.0317378
0.0775514
0.0939861
0.062044
-0.0135385
-0.00637808
0.0748246
0.0699904
0.056538
0.0848076
0.0111499
0.0910714
0.032852
0.00708204
-0.0303969
0.0683418
0.0926419
-0.0790533
0.0557242
-0.0294253
-0.000949524
-0.0614009
0.0832629
-0.0799714
0.0218353
0.027527
-0.00394675
0.0672651
0.0905281
-0.00597008
-0.0363537
-0.089633
-0.0880289
-0.0644135
-0.0308772
0.0598073
-0.0290785
0.0912736
-0.0486177
0.00114708
0.0176392
0.0147387
0.0243155
0.0807935
0.0500286
-0.0823714
-0.0368364
0.0292668
-0.0503004
-0.0247081
-0.0308365
-0.0885889
0.0885078
-0.0210649
-0.0450672
-0.0944397
-0.0379596
-0.0603657
0.0879167
-0.091432
0.0225175
-0.00245066
-0.063337
0.0265657
0.0272767
0.0907644
0.034119
-0.00814915
-0.0264145
-0.0648251
